{"learner":{"attributes":{},"feature_names":["carat","depth","table","price","x","y","z"],"feature_types":["float","float","float","int","float","float","float"],"gradient_booster":{"model":{"gbtree_model_param":{"num_parallel_tree":"1","num_trees":"5"},"iteration_indptr":[0,5],"tree_info":[0,1,2,3,4],"trees":[{"base_weights":[-5.3164536E-1,-6.010011E-1,2.0601823E0,-6.103133E-1,2.3376622E0,-1.1299434E-1,2.100374E0,2.0853078E0,-6.157046E-1,5.2631576E-2,2.3839009E-1,-4.8672568E-2,3.9325842E-1,1.1266294E0,2.1608589E0,1.3184079E0,2.308534E-1,1.5283842E-1,-6.184709E-1,8.77193E-3,5.2631576E-2,-2.0618556E-1,1.3440859E0,2.0588233E0,2.4419203E-1,1.9469027E-1,3.9823008E-1,4.0221912E-1,-2.561247E-1,7.692307E-2,-6.1871004E-1,8.77193E-3,-3.8461536E-2,1.7003366E0,6.217616E-1,1.9156129E0,2.2338288E0,-3.508772E-2,8.024692E-2,-5.3050397E-3,8.401083E-2,1.8518519E-2,-3.307888E-2,-5.4433938E-2,-6.196029E-2,1.9098711E-1,6.741573E-2,-4.109589E-2,1.0344827E-1,2.031791E-1,2.4096385E-2,2.2979467E-1,1.3333333E-1],"categories":[],"categories_nodes":[],"categories_segments":[],"categories_sizes":[],"default_left":[0,0,0,0,0,0,0,0,0,0,0,0,0,0,0,0,0,0,0,0,0,0,0,0,0,0,0,0,0,0,0,0,0,0,0,0,0,0,0,0,0,0,0,0,0,0,0,0,0,0,0,0,0],"id":0,"left_children":[1,3,5,7,9,11,13,15,17,-1,-1,-1,19,21,23,25,-1,27,29,-1,-1,31,33,35,-1,-1,37,39,41,-1,43,-1,-1,45,47,49,51,-1,-1,-1,-1,-1,-1,-1,-1,-1,-1,-1,-1,-1,-1,-1,-1],"loss_changes":[2.3284949E3,3.465039E2,2.9727905E1,1.8397705E2,2.0988312E0,1.5309627E0,1.7093384E1,1.2909927E0,2.6768555E1,0E0,0E0,0E0,9.856099E-2,6.5026665E0,3.8937988E0,3.8744335E0,0E0,4.774046E0,4.625E0,0E0,0E0,2.3721075E-1,3.729103E0,1.6005859E0,0E0,0E0,1.6503072E0,5.794043E0,6.530391E-1,0E0,4.9316406E-1,0E0,0E0,1.2668839E0,3.715591E0,2.5977966E1,2.6844177E0,0E0,0E0,0E0,0E0,0E0,0E0,0E0,0E0,0E0,0E0,0E0,0E0,0E0,0E0,0E0,0E0],"parents":[2147483647,0,0,1,1,2,2,3,3,4,4,5,5,6,6,7,7,8,8,12,12,13,13,14,14,15,15,17,17,18,18,21,21,22,22,23,23,26,26,27,27,28,28,30,30,33,33,34,34,35,35,36,36],"right_children":[2,4,6,8,10,12,14,16,18,-1,-1,-1,20,22,24,26,-1,28,30,-1,-1,32,34,36,-1,-1,38,40,42,-1,44,-1,-1,46,48,50,52,-1,-1,-1,-1,-1,-1,-1,-1,-1,-1,-1,-1,-1,-1,-1,-1],"split_conditions":[6.44E1,6.6E1,3E-1,5.65E1,5.96E2,5.71E1,6.45E1,5.25E0,5.75E1,5.2631576E-2,2.3839009E-1,-4.8672568E-2,2.5E-1,5.05E0,6.62E1,5.6E1,2.308534E-1,6.63E0,5.1E1,8.77193E-3,5.2631576E-2,4.1E-1,4.306E3,6.26E0,2.4419203E-1,1.9469027E-1,6.11E1,2.048E3,5.68E1,7.692307E-2,5.84E1,8.77193E-3,-3.8461536E-2,5.91E1,6.31E0,6.21E0,1.5301E4,-3.508772E-2,8.024692E-2,-5.3050397E-3,8.401083E-2,1.8518519E-2,-3.307888E-2,-5.4433938E-2,-6.196029E-2,1.9098711E-1,6.741573E-2,-4.109589E-2,1.0344827E-1,2.031791E-1,2.4096385E-2,2.2979467E-1,1.3333333E-1],"split_indices":[1,2,0,1,3,2,1,5,1,0,0,0,0,4,1,1,0,4,2,0,0,0,3,4,0,0,2,3,1,0,1,0,0,2,4,5,3,0,0,0,0,0,0,0,0,0,0,0,0,0,0,0,0],"split_type":[0,0,0,0,0,0,0,0,0,0,0,0,0,0,0,0,0,0,0,0,0,0,0,0,0,0,0,0,0,0,0,0,0,0,0,0,0,0,0,0,0,0,0,0,0,0,0,0,0,0,0,0,0],"sum_hessian":[1.2945601E4,1.2608961E4,3.3664E2,1.2569921E4,3.904E1,6.0800004E0,3.3056003E2,2.4320002E1,1.2545601E4,1.2800001E0,3.7760002E1,3.5200002E0,2.5600002E0,2.0480001E1,3.1008002E2,7.0400004E0,1.728E1,4.4800003E1,1.2500801E4,1.2800001E0,1.2800001E0,2.88E0,1.76E1,2.3360002E2,7.648E1,3.5200002E0,3.5200002E0,2.7840002E1,1.6960001E1,1.6000001E0,1.2499201E4,1.2800001E0,1.6000001E0,1.0880001E1,6.7200003E0,1.3504001E2,9.8560005E1,1.2800001E0,2.2400002E0,1.4080001E1,1.3760001E1,2.2400002E0,1.4720001E1,1.5552E2,1.2343681E4,8.320001E0,2.5600002E0,1.9200001E0,4.8E0,1.2608001E2,8.960001E0,9.0560005E1,8.000001E0],"tree_param":{"num_deleted":"0","num_feature":"7","num_nodes":"53","size_leaf_vector":"1"}},{"base_weights":[-3.4078443E-1,-5.093655E-1,7.683843E-1,-5.8638644E-1,2.4165486E-1,1.0118278E0,-3.0676785E-1,1.6585562E0,-5.9724176E-1,9.2184015E-2,1.2800243E0,3.5599503E-1,1.9165584E0,1.5517241E0,-3.403982E-1,-2.5423726E-1,1.9333949E0,6.187389E-2,-6.0162157E-1,1.4826498E0,-1.1252285E-2,2.0239623E0,-5.322415E-1,1.3061588E0,1.6638048E-1,1.970632E0,4.7237074E-1,5.2631576E-2,1.7256637E-1,-2.5625744E-1,-5.9112024E-1,2.739726E-2,-5.03876E-2,1.9637749E0,5.2631576E-2,2.412488E-1,-2.255639E-1,-4.5696986E-1,-6.0565495E-1,-2.4590163E-1,1.8582375E0,2.094763E0,-5.154393E-2,-2.0737326E-1,2.2261071E0,5.2631576E-2,-5.8201056E-2,-2.4630541E-2,1.5862441E0,2.87196E-1,-8.913802E-2,8.1314874E-1,1.9912527E0,1.5044247E0,2.0084566E-1,-9.973599E-2,-4.6805945E-1,-0E0,-6.035846E-2,1.3981763E-1,2.147651E-1,1.2690355E-2,1.3402061E-1,-1.1627907E-2,-4.3778803E-2,-3.5519123E-2,-5.2051216E-2,-6.0928356E-2,-5.5961337E-2,4.7619045E-2,-5.5555552E-2,1.4671163E-1,2.109905E-1,2.2576177E-1,3.8461536E-2,5.1280158E-3,-2.3905722E-2,-3.726708E-2,1.8518519E-2,1.3989638E-1,2.278705E-1,3.0534351E-2,-5.6016594E-2,1.997177E-1,1.13718405E-1,1.632193E-2,1.2567464E-1,-5.8127016E-2,1.2122547E-3,-4.4247787E-3,1.1940298E-1,1.9269553E-1,2.3359261E-1,5.2631576E-2,1.7283951E-1,-1.4522821E-2,5.0583657E-2,-2.0408163E-2,1.2449799E-1,-5.6847543E-2,-3.7324462E-2],"categories":[],"categories_nodes":[],"categories_segments":[],"categories_sizes":[],"default_left":[0,0,0,0,0,0,0,0,0,0,0,0,0,0,0,0,0,0,0,0,0,0,0,0,0,0,0,0,0,0,0,0,0,0,0,0,0,0,0,0,0,0,0,0,0,0,0,0,0,0,0,0,0,0,0,0,0,0,0,0,0,0,0,0,0,0,0,0,0,0,0,0,0,0,0,0,0,0,0,0,0,0,0,0,0,0,0,0,0,0,0,0,0,0,0,0,0,0,0,0,0],"id":1,"left_children":[1,3,5,7,9,11,13,15,17,19,21,23,25,27,29,31,33,35,37,39,41,43,45,47,49,51,53,-1,-1,55,57,-1,-1,59,-1,61,63,65,67,69,71,73,75,77,79,-1,-1,81,83,85,87,89,91,93,95,97,99,-1,-1,-1,-1,-1,-1,-1,-1,-1,-1,-1,-1,-1,-1,-1,-1,-1,-1,-1,-1,-1,-1,-1,-1,-1,-1,-1,-1,-1,-1,-1,-1,-1,-1,-1,-1,-1,-1,-1,-1,-1,-1,-1,-1],"loss_changes":[2.4212095E3,6.502583E2,4.4749646E2,2.4941284E2,1.6224606E2,8.260469E2,2.029124E1,2.641954E1,2.9326172E1,1.3169676E2,1.784482E2,1.4553612E2,4.4778076E1,1.2623787E-1,6.417801E0,1.0716285E0,8.1481934E-1,3.5542507E0,5.60376E0,4.1617645E1,7.2502716E1,4.262607E1,2.3651857E0,5.0149475E1,2.0880545E1,1.18396E1,5.9861717E0,0E0,0E0,7.7412825E0,5.7086563E-1,0E0,0E0,1.3610382E0,0E0,5.1428523E0,5.6602514E-1,1.6096535E0,1.2963867E0,2.9924536E0,2.0427094E0,3.5989075E0,1.6171953E1,6.322492E-1,5.449829E-1,0E0,0E0,4.475767E0,1.8226807E1,5.4957832E1,1.0852827E1,3.8279362E0,7.7614746E0,8.050251E-2,2.0704563E0,1.9387465E1,7.357216E-1,0E0,0E0,0E0,0E0,0E0,0E0,0E0,0E0,0E0,0E0,0E0,0E0,0E0,0E0,0E0,0E0,0E0,0E0,0E0,0E0,0E0,0E0,0E0,0E0,0E0,0E0,0E0,0E0,0E0,0E0,0E0,0E0,0E0,0E0,0E0,0E0,0E0,0E0,0E0,0E0,0E0,0E0,0E0,0E0],"parents":[2147483647,0,0,1,1,2,2,3,3,4,4,5,5,6,6,7,7,8,8,9,9,10,10,11,11,12,12,13,13,14,14,15,15,16,16,17,17,18,18,19,19,20,20,21,21,22,22,23,23,24,24,25,25,26,26,29,29,30,30,33,33,35,35,36,36,37,37,38,38,39,39,40,40,41,41,42,42,43,43,44,44,47,47,48,48,49,49,50,50,51,51,52,52,53,53,54,54,55,55,56,56],"right_children":[2,4,6,8,10,12,14,16,18,20,22,24,26,28,30,32,34,36,38,40,42,44,46,48,50,52,54,-1,-1,56,58,-1,-1,60,-1,62,64,66,68,70,72,74,76,78,80,-1,-1,82,84,86,88,90,92,94,96,98,100,-1,-1,-1,-1,-1,-1,-1,-1,-1,-1,-1,-1,-1,-1,-1,-1,-1,-1,-1,-1,-1,-1,-1,-1,-1,-1,-1,-1,-1,-1,-1,-1,-1,-1,-1,-1,-1,-1,-1,-1,-1,-1,-1,-1],"split_conditions":[6.31E1,6.01E1,6.45E1,5.8E1,6.33E1,6.36E1,2.9E-1,5.65E1,5.85E1,5.8E1,6.6E1,6.98E2,6.44E1,4.35E2,6.62E1,4.1E-1,1.4482E4,1.02E0,5.94E1,5.65E1,6.1E1,5.67E1,5.96E2,4.25E0,6.38E0,2.9E-1,5.1E-1,5.2631576E-2,1.7256637E-1,6.26E0,4.78E0,2.739726E-2,-5.03876E-2,5.74E1,5.2631576E-2,6.61E0,5.84E1,5.81E1,6.28E1,5.1E-1,5.75E1,1.01E0,6.44E0,5.63E1,5.76E1,5.2631576E-2,-5.8201056E-2,4.22E0,5.73E2,6.34E0,6.41E0,5.51E1,5.96E1,3.1E-1,3.992E3,6.21E0,5.463E3,-0E0,-6.035846E-2,1.3981763E-1,2.147651E-1,1.2690355E-2,1.3402061E-1,-1.1627907E-2,-4.3778803E-2,-3.5519123E-2,-5.2051216E-2,-6.0928356E-2,-5.5961337E-2,4.7619045E-2,-5.5555552E-2,1.4671163E-1,2.109905E-1,2.2576177E-1,3.8461536E-2,5.1280158E-3,-2.3905722E-2,-3.726708E-2,1.8518519E-2,1.3989638E-1,2.278705E-1,3.0534351E-2,-5.6016594E-2,1.997177E-1,1.13718405E-1,1.632193E-2,1.2567464E-1,-5.8127016E-2,1.2122547E-3,-4.4247787E-3,1.1940298E-1,1.9269553E-1,2.3359261E-1,5.2631576E-2,1.7283951E-1,-1.4522821E-2,5.0583657E-2,-2.0408163E-2,1.2449799E-1,-5.6847543E-2,-3.7324462E-2],"split_indices":[1,2,1,1,2,1,0,1,1,1,2,3,1,3,1,0,3,0,1,1,2,1,3,5,4,0,0,0,0,4,4,0,0,1,0,5,1,2,1,0,1,0,4,1,1,0,0,4,3,5,5,2,2,0,3,5,3,0,0,0,0,0,0,0,0,0,0,0,0,0,0,0,0,0,0,0,0,0,0,0,0,0,0,0,0,0,0,0,0,0,0,0,0,0,0,0,0,0,0,0,0],"split_type":[0,0,0,0,0,0,0,0,0,0,0,0,0,0,0,0,0,0,0,0,0,0,0,0,0,0,0,0,0,0,0,0,0,0,0,0,0,0,0,0,0,0,0,0,0,0,0,0,0,0,0,0,0,0,0,0,0,0,0,0,0,0,0,0,0,0,0,0,0,0,0,0,0,0,0,0,0,0,0,0,0,0,0,0,0,0,0,0,0,0,0,0,0,0,0,0,0,0,0,0,0],"sum_hessian":[1.2945601E4,1.1238081E4,1.7075201E3,1.0192961E4,1.0451201E3,1.3923201E3,3.152E2,4.8320004E1,1.0144641E4,9.1456006E2,1.3056001E2,8.0800006E2,5.8432007E2,4.8E0,3.1040002E2,6.0800004E0,4.224E1,6.6880005E1,1.0077761E4,6.2400005E1,8.5216003E2,9.248E1,3.808E1,1.3344E2,6.7456006E2,5.6288007E2,2.1440002E1,1.2800001E0,3.5200002E0,2.3392001E2,7.648E1,1.9200001E0,4.1600003E0,4.0960003E1,1.2800001E0,4.1280003E1,2.5600002E1,2.7648E2,9.80128E3,1.1200001E1,5.1200005E1,1.5040001E1,8.3712006E2,7.6800003E0,8.48E1,1.2800001E0,3.6800003E1,2.3360003E1,1.1008001E2,4.5792004E2,2.1664001E2,1.056E1,5.5232007E2,3.5200002E0,1.7920002E1,1.3536002E2,9.8560005E1,1.6000001E0,7.4880005E1,1.2160001E1,2.8800001E1,3.84E1,2.88E0,1.7920002E1,7.6800003E0,1.0880001E2,1.6768001E2,9.073921E3,7.2736005E2,3.2000003E0,8.000001E0,2.2720001E1,2.8480001E1,1.3440001E1,1.6000001E0,5.4112006E2,2.9600003E2,5.4400005E0,2.2400002E0,6.7200003E0,7.808E1,1.4720001E1,8.64E0,5.5680004E1,5.4400005E1,4.0704004E2,5.0880005E1,3.6160004E1,1.8048001E2,3.5200002E0,7.0400004E0,4.7104004E2,8.128001E1,1.2800001E0,2.2400002E0,8.64E0,9.280001E0,1.2640001E2,8.960001E0,4.5440002E1,5.3120003E1],"tree_param":{"num_deleted":"0","num_feature":"7","num_nodes":"101","size_leaf_vector":"1"}},{"base_weights":[6.2348413E-1,1.512268E0,-4.7003862E-1,1.8911227E0,-3.3145088E-1,-4.2895967E-1,-5.852083E-1,6.0692E-1,1.9383368E0,5.5487144E-1,-5.711903E-1,-3.48739E-1,-5.423086E-1,8.77193E-3,-5.8583176E-1,-3.2E-1,7.272339E-1,1.9686997E0,8.722819E-1,-4.8387095E-1,6.323262E-1,-5.7806385E-1,1.659751E-1,-5.3006816E-1,-3.2185858E-1,-5.012176E-1,-5.758676E-1,-6.020515E-1,-5.5083025E-1,-5.8441557E-2,9.433962E-2,-5.6224894E-2,7.9507273E-1,2.092832E0,1.8174869E0,-1.16279066E-1,8.994098E-1,-5.797101E-2,-1.7241378E-1,5.757196E-1,1.2474437E0,-5.8256584E-1,-3.11804E-1,1.4035088E-1,-1.9138755E-1,-6.0052216E-2,-4.9269733E-1,-4.1869304E-1,-2.7465072E-1,-5.384615E-1,-4.4452652E-1,-5.606186E-1,-6.183975E-2,-5.775775E-1,-6.1891325E-2,-4.0504646E-1,-5.590944E-1,-3.1007752E-2,4.037267E-2,1.1492816E-1,5.919003E-2,1.4457831E-1,2.1430798E-1,1.8884303E-1,1.4870284E-1,3.8461536E-2,-4.494382E-2,1.2217194E-1,7.649982E-2,8.77193E-3,-2.6548672E-2,8.982614E-2,4.4895448E-2,1.4303178E-1,2.3809522E-2,-5.2399606E-2,-5.9813853E-2,4.0145986E-2,-5.78635E-2,-3.726708E-2,2.739726E-2,-5.8461536E-2,-4.502494E-2,-1.674327E-2,-5.0393403E-2,-1.7563738E-2,-3.055407E-2,-4.8868027E-2,-5.7730086E-2,-4.208587E-2,-5.8769513E-2,-5.3173065E-2,-5.9304703E-2,-4.3700337E-2,-5.8849957E-2,-2.3545705E-2,-5.2757796E-2,-5.6968212E-2,-4.728299E-2],"categories":[],"categories_nodes":[],"categories_segments":[],"categories_sizes":[],"default_left":[0,0,0,0,0,0,0,0,0,0,0,0,0,0,0,0,0,0,0,0,0,0,0,0,0,0,0,0,0,0,0,0,0,0,0,0,0,0,0,0,0,0,0,0,0,0,0,0,0,0,0,0,0,0,0,0,0,0,0,0,0,0,0,0,0,0,0,0,0,0,0,0,0,0,0,0,0,0,0,0,0,0,0,0,0,0,0,0,0,0,0,0,0,0,0,0,0,0,0],"id":2,"left_children":[1,3,5,7,9,11,13,15,17,19,21,23,25,-1,27,29,31,33,35,37,39,41,43,45,47,49,51,53,55,-1,57,-1,59,61,63,65,67,-1,69,71,73,75,77,-1,79,-1,81,83,85,87,89,91,-1,93,-1,95,97,-1,-1,-1,-1,-1,-1,-1,-1,-1,-1,-1,-1,-1,-1,-1,-1,-1,-1,-1,-1,-1,-1,-1,-1,-1,-1,-1,-1,-1,-1,-1,-1,-1,-1,-1,-1,-1,-1,-1,-1,-1,-1],"loss_changes":[1.2583582E4,4.989409E3,2.7215088E1,3.5806055E2,2.5918484E2,3.8755127E1,6.9055176E-1,2.382618E1,1.8324805E2,2.1214745E1,4.9571533E0,1.2067352E1,2.1565552E0,0E0,5.325928E-1,2.79408E0,1.6854218E1,1.0046875E2,4.3964767E0,4.55256E-1,7.717949E0,9.5803833E-1,4.531888E0,5.535126E-1,9.89241E0,1.4599609E0,2.819519E-1,6.7352295E-2,3.684845E-1,0E0,1.4514738E0,0E0,1.2172775E1,9.5875E1,5.6083984E1,1.033949E0,5.8184357E0,0E0,1.6371413E-1,8.743973E0,3.2699032E0,5.3826904E-1,3.6504622E0,0E0,8.073679E-1,0E0,5.809479E-1,1.5241249E1,4.456421E0,6.478729E-1,8.533783E-1,3.6309814E-1,0E0,4.1059875E-1,0E0,5.016732E-1,1.5504456E-1,0E0,0E0,0E0,0E0,0E0,0E0,0E0,0E0,0E0,0E0,0E0,0E0,0E0,0E0,0E0,0E0,0E0,0E0,0E0,0E0,0E0,0E0,0E0,0E0,0E0,0E0,0E0,0E0,0E0,0E0,0E0,0E0,0E0,0E0,0E0,0E0,0E0,0E0,0E0,0E0,0E0,0E0],"parents":[2147483647,0,0,1,1,2,2,3,3,4,4,5,5,6,6,7,7,8,8,9,9,10,10,11,11,12,12,14,14,15,15,16,16,17,17,18,18,19,19,20,20,21,21,22,22,23,23,24,24,25,25,26,26,27,27,28,28,30,30,32,32,33,33,34,34,35,35,36,36,38,38,39,39,40,40,41,41,42,42,44,44,46,46,47,47,48,48,49,49,50,50,51,51,53,53,55,55,56,56],"right_children":[2,4,6,8,10,12,14,16,18,20,22,24,26,-1,28,30,32,34,36,38,40,42,44,46,48,50,52,54,56,-1,58,-1,60,62,64,66,68,-1,70,72,74,76,78,-1,80,-1,82,84,86,88,90,92,-1,94,-1,96,98,-1,-1,-1,-1,-1,-1,-1,-1,-1,-1,-1,-1,-1,-1,-1,-1,-1,-1,-1,-1,-1,-1,-1,-1,-1,-1,-1,-1,-1,-1,-1,-1,-1,-1,-1,-1,-1,-1,-1,-1,-1,-1],"split_conditions":[5.71E1,6.29E1,6.25E1,6.01E1,6.31E1,5.91E1,5.73E1,5.88E1,6.28E1,5.39E2,1.6716E4,5.98E1,6.01E1,8.77193E-3,6.39E0,5.85E1,3E-1,5.37E0,4.95E2,5.22E2,7.33E0,1.4482E4,5.41E1,5.9E1,5.09E0,4.476E3,6.21E1,5.81E1,4.02E0,-5.8441557E-2,8E-1,-5.6224894E-2,1.822E3,4.28E0,6.24E1,2.6E-1,5.51E1,-5.797101E-2,5.26E2,4.73E0,1.7149E4,6.33E1,5.51E1,1.4035088E-1,6.42E1,-6.0052216E-2,5.28E0,2.67E0,5.78E0,6.07E1,6.21E1,6.05E1,-6.183975E-2,6.26E1,-6.1891325E-2,5.81E1,6.42E1,-3.1007752E-2,4.037267E-2,1.1492816E-1,5.919003E-2,1.4457831E-1,2.1430798E-1,1.8884303E-1,1.4870284E-1,3.8461536E-2,-4.494382E-2,1.2217194E-1,7.649982E-2,8.77193E-3,-2.6548672E-2,8.982614E-2,4.4895448E-2,1.4303178E-1,2.3809522E-2,-5.2399606E-2,-5.9813853E-2,4.0145986E-2,-5.78635E-2,-3.726708E-2,2.739726E-2,-5.8461536E-2,-4.502494E-2,-1.674327E-2,-5.0393403E-2,-1.7563738E-2,-3.055407E-2,-4.8868027E-2,-5.7730086E-2,-4.208587E-2,-5.8769513E-2,-5.3173065E-2,-5.9304703E-2,-4.3700337E-2,-5.8849957E-2,-2.3545705E-2,-5.2757796E-2,-5.6968212E-2,-4.728299E-2],"split_indices":[2,1,1,1,1,2,2,1,1,3,3,1,2,0,5,1,0,4,3,3,5,3,2,1,5,3,2,2,6,0,0,0,3,4,1,0,2,0,3,5,3,1,2,0,1,0,5,6,4,1,1,1,0,1,0,2,1,0,0,0,0,0,0,0,0,0,0,0,0,0,0,0,0,0,0,0,0,0,0,0,0,0,0,0,0,0,0,0,0,0,0,0,0,0,0,0,0,0,0],"split_type":[0,0,0,0,0,0,0,0,0,0,0,0,0,0,0,0,0,0,0,0,0,0,0,0,0,0,0,0,0,0,0,0,0,0,0,0,0,0,0,0,0,0,0,0,0,0,0,0,0,0,0,0,0,0,0,0,0,0,0,0,0,0,0,0,0,0,0,0,0,0,0,0,0,0,0,0,0,0,0,0,0,0,0,0,0,0,0,0,0,0,0,0,0,0,0,0,0,0,0],"sum_hessian":[1.2945601E4,7.1411206E3,5.8044805E3,5.9238403E3,1.21728E3,4.2819204E3,1.52256E3,2.1056001E2,5.7132803E3,2.5888E2,9.584001E2,2.5097603E3,1.7721602E3,1.2800001E0,1.5212802E3,2.4000002E1,1.8656001E2,5.55424E3,1.5904001E2,1.76E1,2.4128001E2,9.497601E2,8.64E0,3.2160004E2,2.1881602E3,8.0384E2,9.6832007E2,1.0284801E3,4.9280005E2,1.4400001E1,9.6E0,8.960001E0,1.776E2,3.0432002E3,2.5110403E3,4.1600003E0,1.5488E2,1.2800001E1,4.8E0,2.2272002E2,1.8560001E1,9.3280005E2,1.6960001E1,1.2800001E0,7.3600006E0,1.06240005E2,2.1536002E2,7.1456006E2,1.4736001E3,4.8000003E2,3.2384003E2,7.232001E2,2.4512001E2,4.3392004E2,5.9456006E2,2.9120003E1,4.6368002E2,4.1600003E0,5.4400005E0,6.3040005E1,1.14560005E2,2.2144002E2,2.8217603E3,2.06336E3,4.4768002E2,1.6000001E0,2.5600002E0,4.3200005E1,1.1168001E2,1.2800001E0,3.5200002E0,6.1120003E1,1.616E2,1.5360001E1,3.2000003E0,2.0320001E2,7.2960004E2,4.4800005E0,1.24800005E1,5.4400005E0,1.9200001E0,6.400001E1,1.5136002E2,1.8176001E2,5.3280005E2,3.5200003E2,1.1216001E3,2.1632002E2,2.6368002E2,2.8128003E2,4.256E1,3.9168002E2,3.3152002E2,3.424E1,3.9968002E2,1.3440001E1,1.5680001E1,4.0800003E2,5.5680004E1],"tree_param":{"num_deleted":"0","num_feature":"7","num_nodes":"99","size_leaf_vector":"1"}},{"base_weights":[1.7394528E-1,-4.470046E-1,9.423495E-1,-5.252625E-1,-3.328072E-1,1.1742859E0,-6.2416323E-2,6.7567563E-1,-5.2723414E-1,-2.7937856E-1,-6.2361587E-2,1.2715698E0,-6.2259205E-2,1.4285713E-1,-2.3809522E-1,-5.760208E-1,-4.854038E-1,3.5739067E-1,-2.9450858E-1,-6.1792668E-2,1.3068612E0,8.77193E-3,-4.109589E-2,5.2631576E-2,-5.7701373E-1,-4.6834868E-1,-6.2250275E-2,1.2591815E-1,7.699805E-1,-5.5691123E-1,-2.6673764E-1,1.2069398E-1,1.3481665E0,3.649635E-3,-5.784444E-2,-4.9532346E-2,-3.5155844E-2,-5.4869684E-3,6.4257026E-2,9.6997686E-2,-2.3809522E-2,-2.7942924E-2,-6.0150374E-2,4.260019E-3,-2.8570592E-2,-6.032749E-3,1.3243762E-1,1.4371401E-1,8.664412E-2],"categories":[],"categories_nodes":[],"categories_segments":[],"categories_sizes":[],"default_left":[0,0,0,0,0,0,0,0,0,0,0,0,0,0,0,0,0,0,0,0,0,0,0,0,0,0,0,0,0,0,0,0,0,0,0,0,0,0,0,0,0,0,0,0,0,0,0,0,0],"id":3,"left_children":[1,3,5,7,9,11,-1,13,15,17,-1,19,-1,-1,21,23,25,27,29,-1,31,-1,-1,-1,33,35,-1,37,39,41,43,45,47,-1,-1,-1,-1,-1,-1,-1,-1,-1,-1,-1,-1,-1,-1,-1,-1],"loss_changes":[6.177769E3,6.38219E1,2.1031865E3,1.0413208E1,4.511139E1,8.8193945E2,0E0,5.4311457E0,8.375366E0,2.3844635E1,0E0,3.1969336E2,0E0,0E0,2.7259934E-1,2.4406128E0,5.062134E0,5.407851E0,1.7394592E1,0E0,2.2985693E2,0E0,0E0,0E0,1.7337036E0,6.2538147E0,0E0,3.595834E0,4.3680143E0,2.6714096E0,1.2797226E1,3.4742207E1,1.9319922E2,0E0,0E0,0E0,0E0,0E0,0E0,0E0,0E0,0E0,0E0,0E0,0E0,0E0,0E0,0E0,0E0],"parents":[2147483647,0,0,1,1,2,2,3,3,4,4,5,5,7,7,8,8,9,9,11,11,14,14,15,15,16,16,17,17,18,18,20,20,24,24,25,25,27,27,28,28,29,29,30,30,31,31,32,32],"right_children":[2,4,6,8,10,12,-1,14,16,18,-1,20,-1,-1,22,24,26,28,30,-1,32,-1,-1,-1,34,36,-1,38,40,42,44,46,48,-1,-1,-1,-1,-1,-1,-1,-1,-1,-1,-1,-1,-1,-1,-1,-1],"split_conditions":[5.8E1,5.73E0,6.31E1,5.24E1,6.31E1,6.21E1,-6.2416323E-2,6.28E1,9.21E2,5.75E0,-6.2361587E-2,5.8E1,-6.2259205E-2,1.4285713E-1,3.1E-1,2.3E-1,6.31E1,5.61E1,5.83E0,-6.1792668E-2,4.26E0,8.77193E-3,-4.109589E-2,5.2631576E-2,5.91E1,6.24E1,-6.2250275E-2,5.78E0,2.872E3,5.77E0,6.02E1,6.65E2,6.01E1,3.649635E-3,-5.784444E-2,-4.9532346E-2,-3.5155844E-2,-5.4869684E-3,6.4257026E-2,9.6997686E-2,-2.3809522E-2,-2.7942924E-2,-6.0150374E-2,4.260019E-3,-2.8570592E-2,-6.032749E-3,1.3243762E-1,1.4371401E-1,8.664412E-2],"split_indices":[2,4,1,2,1,2,0,1,3,5,0,1,0,0,0,0,1,2,4,0,4,0,0,0,1,1,0,4,3,5,1,3,2,0,0,0,0,0,0,0,0,0,0,0,0,0,0,0,0],"split_type":[0,0,0,0,0,0,0,0,0,0,0,0,0,0,0,0,0,0,0,0,0,0,0,0,0,0,0,0,0,0,0,0,0,0,0,0,0,0,0,0,0,0,0,0,0,0,0,0,0],"sum_hessian":[1.2945601E4,7.1600005E3,5.7856006E3,4.2464004E3,2.9136E3,5.03968E3,7.4592004E2,6.4000006E0,4.2400005E3,2.4630403E3,4.5056003E2,4.78112E3,2.5856003E2,3.2000003E0,3.2000003E0,1.9513601E3,2.2886401E3,5.6640003E1,2.4064001E3,8.736001E1,4.6937603E3,1.2800001E0,1.9200001E0,1.2800001E0,1.9500801E3,2.0393601E3,2.4928001E2,3.7120003E1,1.952E1,2.2848001E2,2.1779202E3,1.5808002E2,4.53568E3,4.4800005E0,1.9456001E3,1.6540801E3,3.8528003E2,2.8160002E1,8.960001E0,1.6320002E1,3.2000003E0,3.2640003E1,1.9584001E2,1.2576001E2,2.0521602E3,1.3824E2,1.9840002E1,3.8268804E3,7.0880005E2],"tree_param":{"num_deleted":"0","num_feature":"7","num_nodes":"49","size_leaf_vector":"1"}},{"base_weights":[7.500038E-2,-4.9827226E-2,6.04111E-1,-2.5651252E-1,2.0312433E-1,1.1325291E0,-3.189268E-1,4.8402342E-1,-2.8466815E-1,1.4025836E0,1.6317742E-1,7.8834367E-1,1.4561186E0,-9.0724915E-2,-5.498435E-1,1.9649805E-1,4.063674E-1,3.8931844E-1,-3.1272262E-1,1.5538734E0,1.8930957E-1,1.8263173E-1,-5.3878605E-1,1.6143105E0,6.4156973E-1,5.251413E-1,1.6392325E0,-2.8360173E-2,-4.9833885E-1,-3.423941E-1,-5.9105086E-1,-5.6776553E-2,4.5955497E-1,5.275073E-1,-1.4114627E-1,-4.1623843E-1,-2.6204163E-1,-5.228758E-2,1.6399258E0,-4.8442903E-1,1.2162162E0,1.4671963E-1,1.4628098E0,-3.8785833E-1,-5.6904095E-1,2.2005043E0,1.3733904E0,8.0653137E-1,3.691112E-1,1.781609E-1,2.4486855E-1,1.6532618E0,-5.03876E-2,1.0599078E0,-5.2680504E-2,-5.1006246E-1,-1.6853932E-1,9.6491225E-2,-3.7745878E-1,-1.459854E-1,-5.9608054E-1,-1.4492753E-2,5.0345283E-2,8.809993E-2,3.38925E-2,-4.9504947E-2,1.2336719E-2,-3.3000138E-2,-4.98192E-2,-2.9804016E-2,-7.592936E-3,1.7070448E-1,-3.1007752E-2,-1.6853932E-2,-5.5555552E-2,1.8518519E-2,1.627907E-1,-3.4630268E-3,2.0002156E-2,-4.5092836E-2,1.7190422E-1,-5.045871E-2,6.1643835E-2,-5.7794053E-2,-1.2345678E-2,2.2536135E-1,5.2631576E-2,1.2135388E-1,2.2131148E-1,7.964161E-3,9.83869E-2,-4.5265347E-2,5.180309E-2,-1.7290048E-2,6.6787E-2,1.5496175E-1,1.8626909E-1,1.7977528E-1,4.575163E-2,-4.380086E-2,5.3170538E-3,-4.4973545E-2,-5.950096E-2,8.77193E-3,-3.508772E-2,-2.245345E-2,-5.085599E-2,5.2631576E-2,-4.7619045E-2,-5.4481834E-2,-6.18457E-2],"categories":[],"categories_nodes":[],"categories_segments":[],"categories_sizes":[],"default_left":[0,0,0,0,0,0,0,0,0,0,0,0,0,0,0,0,0,0,0,0,0,0,0,0,0,0,0,0,0,0,0,0,0,0,0,0,0,0,0,0,0,0,0,0,0,0,0,0,0,0,0,0,0,0,0,0,0,0,0,0,0,0,0,0,0,0,0,0,0,0,0,0,0,0,0,0,0,0,0,0,0,0,0,0,0,0,0,0,0,0,0,0,0,0,0,0,0,0,0,0,0,0,0,0,0,0,0,0,0,0,0],"id":4,"left_children":[1,3,5,7,9,11,13,15,17,19,21,23,25,27,29,-1,31,33,35,37,39,41,43,45,47,49,51,53,55,57,59,-1,61,63,65,67,69,-1,71,73,75,77,79,81,83,85,87,89,91,-1,93,95,-1,97,99,101,103,-1,105,107,109,-1,-1,-1,-1,-1,-1,-1,-1,-1,-1,-1,-1,-1,-1,-1,-1,-1,-1,-1,-1,-1,-1,-1,-1,-1,-1,-1,-1,-1,-1,-1,-1,-1,-1,-1,-1,-1,-1,-1,-1,-1,-1,-1,-1,-1,-1,-1,-1,-1,-1],"loss_changes":[8.551222E2,5.4776215E2,1.2057864E3,1.203562E2,2.2551646E2,1.7391968E2,4.7403587E1,2.3532005E1,1.0516208E2,2.7554962E1,6.238002E1,9.1569824E1,1.3705334E2,1.1529932E1,3.6221924E0,0E0,1.07414055E1,1.6380272E1,2.7873535E1,2.4940338E1,1.3015095E1,2.0383763E2,3.4204865E-1,1.3162323E1,2.892926E1,4.6907276E1,2.1144653E1,1.0508201E1,1.4679527E-1,3.8719091E0,7.454529E-1,0E0,5.177334E0,1.1479309E1,4.438378E0,1.22135315E1,2.3985306E1,0E0,1.7496887E1,1.6609836E-1,2.8395844E0,4.1750275E1,6.0108948E1,3.0917509E0,3.2725906E-1,1.6342621E0,8.573624E0,5.2024994E1,3.0471382E1,0E0,1.974519E1,1.1687012E1,0E0,3.035512E0,1.5817795E1,2.7784348E-2,1.9712201E-1,0E0,1.3942642E0,1.4671715E0,8.4487915E-2,0E0,0E0,0E0,0E0,0E0,0E0,0E0,0E0,0E0,0E0,0E0,0E0,0E0,0E0,0E0,0E0,0E0,0E0,0E0,0E0,0E0,0E0,0E0,0E0,0E0,0E0,0E0,0E0,0E0,0E0,0E0,0E0,0E0,0E0,0E0,0E0,0E0,0E0,0E0,0E0,0E0,0E0,0E0,0E0,0E0,0E0,0E0,0E0,0E0,0E0],"parents":[2147483647,0,0,1,1,2,2,3,3,4,4,5,5,6,6,7,7,8,8,9,9,10,10,11,11,12,12,13,13,14,14,16,16,17,17,18,18,19,19,20,20,21,21,22,22,23,23,24,24,25,25,26,26,27,27,28,28,29,29,30,30,32,32,33,33,34,34,35,35,36,36,38,38,39,39,40,40,41,41,42,42,43,43,44,44,45,45,46,46,47,47,48,48,50,50,51,51,53,53,54,54,55,55,56,56,58,58,59,59,60,60],"right_children":[2,4,6,8,10,12,14,16,18,20,22,24,26,28,30,-1,32,34,36,38,40,42,44,46,48,50,52,54,56,58,60,-1,62,64,66,68,70,-1,72,74,76,78,80,82,84,86,88,90,92,-1,94,96,-1,98,100,102,104,-1,106,108,110,-1,-1,-1,-1,-1,-1,-1,-1,-1,-1,-1,-1,-1,-1,-1,-1,-1,-1,-1,-1,-1,-1,-1,-1,-1,-1,-1,-1,-1,-1,-1,-1,-1,-1,-1,-1,-1,-1,-1,-1,-1,-1,-1,-1,-1,-1,-1,-1,-1,-1],"split_conditions":[6.28E1,5.71E1,6.36E1,6.01E1,4.26E0,6.31E1,6.41E1,3E-1,4.28E0,6.65E2,6.33E1,7.2E2,6.98E2,5.96E1,6.43E1,1.9649805E-1,5.82E1,6.65E2,4.81E0,2.3E-1,4.25E0,6.3E1,5.36E0,5.22E2,6.38E0,4.25E0,6.33E1,2.9E-1,7.87E0,2.6E-1,2.64E0,-5.6776553E-2,4.49E0,2.52E0,4.2E0,8.02E2,6.24E1,-5.228758E-2,6.33E1,5.81E1,6.21E1,4.81E0,5.8E1,5.32E0,1.6224E4,5.91E1,4.65E0,4.73E0,6.42E0,1.781609E-1,5.73E2,6.38E0,-5.03876E-2,5.51E1,9.06E2,6.32E0,6.38E1,9.6491225E-2,5.71E1,5.51E1,6.48E1,-1.4492753E-2,5.0345283E-2,8.809993E-2,3.38925E-2,-4.9504947E-2,1.2336719E-2,-3.3000138E-2,-4.98192E-2,-2.9804016E-2,-7.592936E-3,1.7070448E-1,-3.1007752E-2,-1.6853932E-2,-5.5555552E-2,1.8518519E-2,1.627907E-1,-3.4630268E-3,2.0002156E-2,-4.5092836E-2,1.7190422E-1,-5.045871E-2,6.1643835E-2,-5.7794053E-2,-1.2345678E-2,2.2536135E-1,5.2631576E-2,1.2135388E-1,2.2131148E-1,7.964161E-3,9.83869E-2,-4.5265347E-2,5.180309E-2,-1.7290048E-2,6.6787E-2,1.5496175E-1,1.8626909E-1,1.7977528E-1,4.575163E-2,-4.380086E-2,5.3170538E-3,-4.4973545E-2,-5.950096E-2,8.77193E-3,-3.508772E-2,-2.245345E-2,-5.085599E-2,5.2631576E-2,-4.7619045E-2,-5.4481834E-2,-6.18457E-2],"split_indices":[1,2,1,1,4,1,1,0,4,3,2,3,3,2,1,0,1,3,5,0,5,2,4,3,4,5,2,0,5,0,6,0,5,6,5,3,1,0,2,2,1,5,1,5,3,2,5,5,5,0,3,4,0,2,3,4,1,0,2,2,1,0,0,0,0,0,0,0,0,0,0,0,0,0,0,0,0,0,0,0,0,0,0,0,0,0,0,0,0,0,0,0,0,0,0,0,0,0,0,0,0,0,0,0,0,0,0,0,0,0,0],"split_type":[0,0,0,0,0,0,0,0,0,0,0,0,0,0,0,0,0,0,0,0,0,0,0,0,0,0,0,0,0,0,0,0,0,0,0,0,0,0,0,0,0,0,0,0,0,0,0,0,0,0,0,0,0,0,0,0,0,0,0,0,0,0,0,0,0,0,0,0,0,0,0,0,0,0,0,0,0,0,0,0,0,0,0,0,0,0,0,0,0,0,0,0,0,0,0,0,0,0,0,0,0,0,0,0,0,0,0,0,0,0,0],"sum_hessian":[1.2945601E4,1.0475201E4,2.4704001E3,5.7648003E3,4.7104004E3,1.5708801E3,8.995201E2,2.1056001E2,5.55424E3,1.5072002E2,4.55968E3,7.6288007E2,8.0800006E2,4.5312003E2,4.4640002E2,9.280001E0,2.0128001E2,2.2144002E2,5.3328003E3,1.3376001E2,1.6960001E1,4.4374404E3,1.22240005E2,1.13600006E2,6.4928E2,1.3344E2,6.7456006E2,3.9392E2,5.9200005E1,7.5520004E1,3.7088004E2,9.920001E0,1.9136002E2,1.7568001E2,4.5760002E1,1.7504001E3,3.5824001E3,5.1200004E0,1.2864001E2,1.056E1,6.4000006E0,4.3174404E3,1.2000001E2,2.2720001E1,9.9520004E1,3.0720001E1,8.2880005E1,4.0320004E2,2.4608002E2,2.3360003E1,1.1008001E2,6.704E2,4.1600003E0,7.6800003E0,3.8624002E2,5.6640003E1,2.5600002E0,1.2800001E0,7.4240005E1,4.4800005E0,3.6640002E2,1.2800001E1,1.7856001E2,5.9840004E1,1.1584001E2,1.92E1,2.6560001E1,8.5536005E2,8.9504004E2,3.0012803E3,5.8112006E2,1.2448001E2,4.1600003E0,2.5600002E0,8.000001E0,2.2400002E0,4.1600003E0,9.8080005E2,3.3366401E3,1.4080001E1,1.05920006E2,2.0800001E1,1.9200001E0,9.728001E1,2.2400002E0,2.9440002E1,1.2800001E0,7.168001E1,1.1200001E1,7.936001E1,3.2384003E2,3.7440002E1,2.0864001E2,5.5680004E1,5.4400005E1,4.5408002E2,2.1632002E2,2.5600002E0,5.1200004E0,8.2560005E1,3.0368002E2,3.6800003E1,1.9840002E1,1.2800001E0,1.2800001E0,3.5520004E1,3.872E1,1.2800001E0,3.2000003E0,1.1904001E2,2.4736002E2],"tree_param":{"num_deleted":"0","num_feature":"7","num_nodes":"111","size_leaf_vector":"1"}}]},"name":"gbtree"},"learner_model_param":{"base_score":"5E-1","boost_from_average":"1","num_class":"5","num_feature":"7","num_target":"1"},"objective":{"name":"multi:softprob","softmax_multiclass_param":{"num_class":"5"}}},"version":[3,0,5]}